{
  "type": "ANN",
  "activation": "relu",
  "n_layers": 4,
  "layers": [
    {
      "weights": [
        [
          -0.03812155639718333,
          0.15017992915274844,
          -0.05605592585557311,
          0.20361546228551167,
          -0.043784886511174265,
          -0.06104502640224654,
          -0.26914452737854067,
          0.019607968498971968,
          0.1352956503759464,
          0.27487284945530305,
          -0.06430304490562318,
          0.24054090423030258,
          0.30634242302223613,
          -0.19270926110906147,
          -0.1894534810694842,
          -0.16389762688861734,
          -0.034491492223404495,
          0.06600430193891316,
          0.25461978490420595,
          0.16494222594946645,
          0.24383421428652652,
          -0.06858633861503673,
          0.06399292501665463,
          0.13399250234687282,
          0.30190152004217397,
          0.183880319664819,
          -0.24922696157539653,
          0.09069369776684118,
          0.21974306918036346,
          -0.2279031502042113,
          0.245617608891331,
          0.09744538964634124,
          -0.09207184373820063,
          0.18243262840611485,
          0.3431749878848396,
          0.10346113805292546,
          0.1270552782760277,
          -0.13055443861076696,
          0.02471972609301673,
          0.10924665803922769,
          -0.012221651013429211,
          0.025780228430947294,
          -0.16869605117616768,
          0.23342469287237444,
          -0.024157874496622496,
          0.23764870548951608,
          -0.0005897528949308652,
          -0.030004614613863657,
          0.27154902581758944,
          0.04773046936597809,
          -0.004759292487881254,
          0.2570882264477805,
          0.3114000603479082,
          0.18407443298744428,
          0.14184503895071748,
          0.13670277268818426,
          -0.16197866692786858,
          0.02525043980042322,
          -0.09913498532251266,
          0.2008506642798745,
          0.18765472303092107,
          -0.18326990060530476,
          0.34837247128743903,
          -0.06564591601284456
        ],
        [
          -0.08022212890910387,
          0.02744418997071704,
          -0.057991092862080054,
          0.3939381552913271,
          -0.08528887993026003,
          0.17440022202801805,
          0.09694070777825194,
          0.07572166852889402,
          0.02935678833191821,
          0.20669878456812818,
          0.022172205226398886,
          0.0904921509527903,
          0.24745749347843113,
          -0.0969259453083165,
          -0.04949330941261021,
          -0.2654635894844435,
          -0.052130291261047144,
          -0.027583656262176844,
          -0.2817327196829281,
          0.03076510069720551,
          -0.01148087416133158,
          -0.04847249656971561,
          0.27385753494107606,
          0.03660606921889826,
          0.26633296408108403,
          0.07331398240657494,
          -0.08664063978110814,
          0.06380635563833996,
          0.2516792428587711,
          0.011780177449530187,
          0.2316676632299787,
          0.010104097341398811,
          -0.014155858372616537,
          0.049430503592160335,
          -0.08459514004326256,
          0.04463550719346259,
          -0.18156587821152986,
          0.3853159468940384,
          0.04427197499067405,
          0.07807931624578451,
          0.23223999614650023,
          -0.042556943133304055,
          -0.08541255173105403,
          0.048456091931161904,
          0.005326459312222667,
          -0.17380762057395235,
          -0.01787944238049769,
          -0.1239772318990433,
          0.2272076903057809,
          0.1973743144661885,
          -0.06961261609647991,
          0.14466912915484123,
          0.2320545524574119,
          -0.09270281607843871,
          0.1369171061171606,
          0.21371126350181271,
          0.2125746486541509,
          0.22548896416561096,
          -0.10326913891369305,
          -0.04905824001786705,
          0.020214927837417778,
          -0.0759924517105305,
          0.30513191054480787,
          0.1274118646802502
        ],
        [
          -0.08088545389126597,
          0.2146986740470392,
          0.2655206532880217,
          -0.061336759241622,
          -0.20143840329758309,
          0.19806378180858616,
          0.7684110007766664,
          0.4465614676578934,
          0.5380180302818669,
          0.5610401204005815,
          0.3382029716582169,
          0.6423553490556491,
          0.6410769130162071,
          -0.3453535914522801,
          0.1046567954027522,
          -0.38538712526206353,
          -0.46168698994553314,
          -0.19430621696695657,
          0.3927168280532128,
          0.09999061542248759,
          -0.6172556021041822,
          0.04677278729843158,
          0.5834238704686479,
          0.18403697706861846,
          -0.37801633737665447,
          0.10002613186713398,
          0.4111690683848296,
          -0.20903897231698512,
          0.5689417380144025,
          0.2051266176651936,
          -0.2250316474760441,
          0.6347648889081743,
          -0.32796193934403556,
          0.581012180793973,
          0.664315656819982,
          0.36050062882236705,
          -0.5428282281573154,
          0.6449304188008927,
          -0.4230099314829651,
          -0.503570546768697,
          -0.42565661317621106,
          0.5276640044328674,
          0.6159348296209601,
          -1.251949599111012,
          -0.1271946494854146,
          -0.18310993805193973,
          0.18591419785125016,
          -0.4154715414848869,
          0.911580454358767,
          0.2546485493050543,
          0.9473135714482843,
          -1.1063836188988123,
          0.03846822593365037,
          -0.5752516358336384,
          0.7542326496866453,
          0.582100537289954,
          -0.27162125485531696,
          0.6630840957426697,
          0.2756502573165245,
          0.9548023745858475,
          0.5189703858064743,
          -0.15477117772598425,
          -0.6895631035503172,
          0.5091330474691331
        ],
        [
          0.038770961978993455,
          0.01948419542275288,
          -0.0375479228561635,
          -0.21593616725760276,
          0.027105311795325108,
          0.14758463916256276,
          0.07964951050105851,
          -0.03779945800168554,
          -0.00886064861167463,
          -0.14274234799987065,
          -0.148131147879712,
          -0.028382136220930304,
          -0.0330004479179616,
          -0.14178667737604447,
          -0.20900187309502372,
          0.15101669540596285,
          -0.05051833930247443,
          -0.09355418397447249,
          -0.07279320910172575,
          0.030851741491114686,
          0.14019215924446762,
          -0.06089379688900914,
          0.06457819804812426,
          -0.08237569878300807,
          -0.1932302464258911,
          0.11291687663895979,
          0.1490231379363476,
          0.19669580979580858,
          0.1410249516752848,
          0.03396856369191842,
          -0.16488548176476606,
          -0.04821305393043505,
          -0.007055825465669608,
          -0.15800291622818652,
          0.22337691319991915,
          -0.14531859320996737,
          0.27525195661161683,
          0.1123074831514645,
          0.10999740081148833,
          -0.04089206375160204,
          0.05904839250608691,
          -0.16442378878982472,
          -0.2678491023023496,
          0.04794791816948674,
          -0.06320676448006843,
          -0.04047702599966799,
          0.09837597862382469,
          -0.05283277116327923,
          0.014854056609381066,
          0.1249756441912375,
          0.12252517976378846,
          0.031228586181090128,
          -0.2747905728817319,
          0.13084967478397136,
          -0.16415722946292016,
          0.29991278226343154,
          -0.028558238569745292,
          0.10724785265811787,
          -0.034299522529902364,
          -0.1047242377048267,
          -0.022886047098715168,
          -0.18084145620655506,
          -0.21177727584237382,
          0.013027115179758034
        ],
        [
          0.08335882506135268,
          0.028847545519355446,
          -0.03061327884073548,
          -0.3903593727166865,
          0.09403346165281075,
          0.31785686474244196,
          -0.3882128603851196,
          0.13194963977113786,
          0.15485172843167702,
          0.11099128084405314,
          -0.05297157417071496,
          0.11111662657774474,
          -0.17727658999575127,
          -0.07336805842283076,
          0.1719838720805464,
          0.3726579987037723,
          0.02814339349788592,
          -0.0846138168784927,
          -0.08277951142962038,
          -0.09673439473716247,
          0.2061671739355811,
          -0.007441696469915864,
          -0.08217739267703261,
          -0.11388779986627327,
          0.17882724590536175,
          -0.1713152389297839,
          -0.06548552248704975,
          -0.3177592109270241,
          0.22726751934548345,
          -0.0754382538366281,
          -0.13346082251317623,
          -0.04919254746418611,
          0.0709292364614334,
          0.1178782094438377,
          -0.33895476080456677,
          -0.2239574347110182,
          0.14274538459109684,
          -0.2122357615492046,
          -0.00599713593124088,
          -0.28895016722555344,
          -0.05722192033550987,
          -0.281327335270515,
          -0.026809530337600775,
          -0.1638749978624746,
          0.015355603320985381,
          -0.12957510703348488,
          -0.06063824793778909,
          -0.011911194230205988,
          0.029706460454318257,
          0.17220462694852498,
          -0.00948811124304537,
          -0.15654558985394673,
          0.19288892855160086,
          -0.21206912571834471,
          -0.30248540420695913,
          -0.18511233442195954,
          -0.51073748396016,
          -0.13015609445906184,
          0.11872346156674292,
          0.01847328137604578,
          -0.2847937856035146,
          -0.21710600142772968,
          -0.4163552649356055,
          -0.05947107006753381
        ],
        [
          0.05393981468107636,
          0.37637197181417703,
          1.1275170344472392,
          0.05391183812943695,
          1.275646354978014,
          0.9301068020674538,
          0.1260183487307952,
          0.3062426475653754,
          0.6173472438198375,
          0.1356450666332642,
          -0.06216057517629039,
          0.34096165302886255,
          -0.4430471663722265,
          0.03963240827929212,
          0.029961621463848002,
          0.36371823067891634,
          1.0599888706110443,
          0.8068978244425937,
          0.18838244465883214,
          -0.3696220452917324,
          0.43509676618663057,
          0.3795034887865095,
          0.0964622434653918,
          -0.11149906631750532,
          0.08087294414306816,
          0.6893611159180967,
          0.6708421851015105,
          -0.5912908164997102,
          -0.12815845887182886,
          0.8341736053473855,
          0.5433157379195084,
          0.4862567646537037,
          0.9490613913630805,
          0.1300961162288182,
          0.0378551681033508,
          0.3068903506730121,
          0.05510676270676686,
          0.23737355591172188,
          0.5789670287263173,
          0.3199557737465629,
          0.5776344354917736,
          0.4350989185297388,
          0.311214447858533,
          0.1345383874179251,
          0.5966041128612494,
          0.2145086194236264,
          0.9922579465389318,
          0.9748973129269972,
          -0.034369190393468856,
          0.25420533725184746,
          0.4553261445424523,
          -0.4541533882301568,
          -0.06894286886987157,
          0.9196657550917476,
          -0.45098330278190507,
          -0.07117046772874357,
          0.8047149910698377,
          -0.3507595002748745,
          1.0393651847123337,
          -0.017342623393928624,
          -0.1397297253725714,
          0.6269220909283914,
          0.4360150678124962,
          0.578478447455612
        ],
        [
          0.0009255365429708067,
          0.01489856800902612,
          -0.028442045738456018,
          -0.16566142965144467,
          0.03265514229409511,
          0.09490531997447155,
          0.1091822394460329,
          0.07059801845711974,
          0.15572723802037197,
          0.3383185505112995,
          -0.267597852513691,
          0.1588106334945715,
          0.2138102657891045,
          -0.023032392090919646,
          0.23264027787688582,
          0.10232081637995084,
          -0.1368715293269854,
          0.18009580841952755,
          0.10982616544781455,
          0.13035839880241437,
          -0.0069057215282700155,
          0.22363165481039035,
          0.051856095199178144,
          -0.14113178755159206,
          0.3260215483171504,
          -0.12878393479949174,
          -0.11375697007887384,
          0.34264053651419923,
          0.16540625017865077,
          0.1345386616938583,
          0.2662283078306808,
          0.041736421328553895,
          0.040305109086150266,
          -0.0644612709381278,
          0.18653313812051972,
          0.2195678592661895,
          0.22473000454400932,
          0.03656158905042486,
          0.04254177979751483,
          0.13650921514150316,
          0.01895869194656762,
          0.012663489175364213,
          0.04011046635242135,
          0.13272297059899446,
          -0.1372988841428902,
          -0.14394748192328916,
          -0.2074745650241875,
          -0.036131049134363574,
          0.18203556203669488,
          -0.24298409347231653,
          -0.21425691890770965,
          0.07520898281276217,
          -0.35625586127290776,
          0.0046934978369811715,
          -0.09303527135224327,
          -0.09060063958112682,
          -0.2640517910431255,
          0.25970340352101023,
          -0.023668800609187707,
          -0.008044443922388376,
          0.30397621651484863,
          0.36218897778607195,
          0.17411792094982254,
          0.012576518502856201
        ],
        [
          -0.05163674538690537,
          -0.0868398440567841,
          0.002252627598939366,
          -0.3158578470489817,
          0.05335292262270015,
          0.3833583667526789,
          -0.27579801772008644,
          0.1044851257258088,
          -0.047704263345431215,
          -0.1181821052421397,
          -0.5575139171610487,
          -0.6830508915295601,
          -0.5527262391030242,
          -0.16492374034463073,
          0.5576726342747258,
          0.23465277979587296,
          0.2818633700479173,
          -0.2116968891982202,
          -0.3304446763913364,
          0.30444552927536844,
          -0.6052538081642986,
          0.5758443249966112,
          -0.5958185287289824,
          0.9474993821216978,
          -0.4933585332140664,
          0.640345162288357,
          -0.4880940192176217,
          0.6781649197502507,
          -0.45039261949197007,
          -0.3539409228946828,
          0.4307018892359506,
          -0.054249584546498246,
          0.09551228107730235,
          0.23571748136512888,
          -0.3026103221768956,
          -0.08192070667532089,
          -0.16766758302102325,
          0.6202064908336099,
          -0.32473880202334476,
          -0.459448463950036,
          0.5941600972247796,
          0.6160956963100322,
          -0.14935489321566797,
          0.1717381923026939,
          -0.4206555071131768,
          -0.8354387587632803,
          -0.1916984779322451,
          -0.14223853823488067,
          0.5374337416989297,
          -0.7304174086857054,
          0.27441377553158686,
          0.233114187698625,
          0.8348788600008951,
          -0.11243709263325338,
          -0.8393346543121099,
          0.8698678768122712,
          0.12980434799603036,
          -0.6175624997465969,
          -0.03631753566076609,
          0.5314743487383087,
          0.6167777861611244,
          0.41842887863895284,
          0.19805726004861582,
          -0.05278565871389207
        ],
        [
          1.4070148259498878,
          -0.14322462283907847,
          -0.5214582417005863,
          -1.0634494037755349,
          -0.07267363713305414,
          -0.144031758166203,
          0.32951566523023934,
          -1.4034121047956793,
          -0.7932561908751953,
          -0.7743838137330304,
          1.145018043353248,
          0.092123135868501,
          0.7354761425186795,
          -0.7471857282286752,
          -0.5376321314535228,
          -0.47185336212261725,
          -0.3467655073168726,
          0.24481030389735592,
          0.07411138380420508,
          1.382547022217684,
          0.803023309031695,
          -0.7662329882812895,
          0.32839525839853334,
          0.9445506920486652,
          1.030004016818154,
          -0.42126206765926233,
          -0.36864805535280487,
          -0.8475733322706138,
          0.9545313406375449,
          0.42585535898880933,
          -0.9016493491874051,
          -0.7694982094101068,
          -0.1354316928426104,
          -0.7753314991099516,
          -0.7332720989361476,
          -0.8333196219470301,
          0.4050349645753773,
          0.5562026888694389,
          -0.95873307593693,
          0.1909924242591318,
          -0.19443132552184889,
          -0.08905975915866146,
          0.8037702040123508,
          -0.7864166459539246,
          -1.1320625557472166,
          -0.8374849581631109,
          -0.19307489617015544,
          -0.11539723331668524,
          -0.3394466131109961,
          -0.4643710920325743,
          -0.7445500611758935,
          -0.4396095271159951,
          -0.4935905687966797,
          0.1698829718580064,
          -0.009080601241744224,
          -0.6222255339543088,
          0.3938591103043484,
          -0.7996429137601756,
          0.026591327843145517,
          0.6639129450015057,
          -0.39310391532927524,
          0.616291157061925,
          0.7905775683283947,
          0.8813370697863144
        ],
        [
          0.08681202112456349,
          0.049129473903118594,
          0.029745223333812014,
          -0.17442155253370523,
          0.024207183181332748,
          0.21978463991221087,
          0.21769116836100802,
          0.08600538824286512,
          0.18097193238913498,
          -0.16074476664659754,
          -0.06500735272656895,
          0.0847328362694854,
          -0.15037915892803252,
          -0.1719696127215406,
          -0.16147507467216998,
          0.4209068797743589,
          -0.03203739298910009,
          0.07007568108249912,
          0.45117957974886097,
          0.04970416016691111,
          0.24212916320954833,
          -0.05262480970614977,
          -0.08306991990250935,
          0.09942797591006339,
          -0.056795030631545756,
          -0.042584735977784435,
          -0.09309270530950652,
          -0.09137895046639756,
          -0.15778510960151915,
          0.001547694158817725,
          -0.1619084376271753,
          0.14719652535479333,
          0.168531053535139,
          0.19775466185269203,
          -0.3008698700037086,
          0.2999228914497894,
          0.2953116516406723,
          -0.20313678981243932,
          0.16066931173779575,
          0.23801830600604298,
          -0.007124533564364405,
          -0.04411571257184742,
          0.4462748260407151,
          0.1356111017181587,
          -0.00824789060001808,
          -0.08846361708558839,
          -0.11456885807190079,
          0.0768425797606704,
          0.2278103941277594,
          0.08908822660962792,
          -0.1439860298232677,
          0.13041950645026837,
          -0.2845774873743882,
          -0.11476202235190418,
          0.3455555372992492,
          0.2692622901508128,
          0.14776573646444502,
          0.11155712818271528,
          -0.0832571603888645,
          0.17565985530688313,
          0.13287963451126245,
          -0.009798075516802545,
          -0.1604775030251036,
          -0.12857324420635047
        ],
        [
          -1.2393295956505723,
          -0.2991081463504083,
          0.09265381063864112,
          0.6268706780237555,
          -0.09291171315667296,
          0.5358544666247655,
          0.4832720185363663,
          0.5694051171830073,
          1.026280477525525,
          0.7804372610529466,
          -0.7924629268028377,
          0.5369632843554022,
          0.5810771257224904,
          0.7371280519062571,
          0.9379389034189478,
          0.14229393777701002,
          0.31225316055919455,
          0.0724504545050029,
          0.2257670968348816,
          0.6151745774017777,
          -0.08063907029276056,
          0.7262866115734556,
          0.6614767784503949,
          -0.6837422776574547,
          -0.48797750751188373,
          0.1912227348831603,
          0.5608379016354949,
          0.23067066384717302,
          -0.4002814722221714,
          0.22392123330406696,
          0.38605201240436443,
          0.5783747046100219,
          0.003235838415872073,
          0.952255516486321,
          0.6754085017441406,
          0.7675644592008103,
          -0.11756590719834935,
          -0.18739854283854543,
          0.6397564334464251,
          0.408515319873092,
          0.5930829627668074,
          0.3756689035619615,
          -0.40845504217749545,
          0.5469104066092506,
          1.0662962473884692,
          0.5958585045884548,
          0.024209468562270478,
          -0.06822610496561379,
          0.6130174917958938,
          0.7513264698106878,
          0.847893269362708,
          0.6908806500442228,
          0.5597752793563155,
          0.2562102954901732,
          0.11056723755418561,
          0.5291664966106046,
          0.02735028644036366,
          0.5261001624217414,
          -0.10928663096206442,
          0.22992017330488895,
          0.5912325645876167,
          -0.24551096414202317,
          0.29996886069553075,
          -0.22974072631441114
        ],
        [
          -0.14198606640288156,
          0.12209623073393952,
          -0.043283499601896494,
          0.040222580402669655,
          -0.03596914543026633,
          0.2127056094516988,
          0.1633115291349295,
          0.13191848736384337,
          0.2505096101976274,
          -0.1132482616682293,
          -0.026000229678740983,
          0.31399447551842824,
          0.2592987011177799,
          0.2669466937111354,
          -0.13195538944847846,
          0.16226153706486604,
          0.010935764327285427,
          -0.15407370879018034,
          -0.3979887288815165,
          0.21967482411366113,
          0.3289254318010596,
          0.3299297664937125,
          0.06357554170131628,
          0.17231359177985925,
          -0.09630687299444057,
          -0.1452798335639144,
          -0.22758882165400854,
          0.27105942712276093,
          0.11901464607909054,
          0.04420158764472756,
          0.07653061621755161,
          0.2839732560577462,
          -0.011722627706941305,
          0.05175423302734038,
          0.1292824036448081,
          0.07067090583581441,
          0.0648316626418265,
          -0.4067638591684976,
          0.21781423889145474,
          0.16903809248707083,
          -0.05324529096617587,
          0.26235922623628655,
          0.09100615047525457,
          0.028218753220454182,
          0.14720060058669554,
          0.13960689882753177,
          -0.08200103058415192,
          0.12267818345288664,
          0.2427013655211978,
          0.03927528150611933,
          -0.11085399999456778,
          0.11701085890100743,
          0.17272167386935636,
          -0.11028072911288857,
          0.19585951748535277,
          0.19658648170981755,
          -0.10631639912108679,
          0.060300575321901605,
          -0.12095151937023337,
          0.1880936852499211,
          -0.14893079993144043,
          0.06509042364393429,
          0.2652889134486242,
          -0.009553313278508481
        ],
        [
          -0.036488335861423804,
          0.1897631117511618,
          -0.0760311221174389,
          0.29673715317512284,
          0.09192853588280753,
          -0.1486219828671439,
          0.3780027181045828,
          0.04817153015159216,
          -0.07330065673690588,
          0.12144869365519481,
          -0.011728744516467575,
          0.2641561540405371,
          0.20034331908396205,
          0.3699885859027373,
          0.005692744122184536,
          0.046720446965584465,
          -0.2674647767383335,
          0.0796338208349325,
          0.1515393167830211,
          0.3047412013382295,
          0.09337700433078064,
          0.2261067494564646,
          -0.2900331851022431,
          0.21954626006513175,
          0.16471105238292466,
          0.18240153857490357,
          -0.29335154092362054,
          0.5184376313353989,
          0.48977784600652197,
          -0.21496610421492154,
          0.16592627822525863,
          0.4691858269181957,
          0.2153395398773367,
          -0.1318431403170011,
          0.24963125499963412,
          -0.07198121939955435,
          0.3042039846993853,
          0.252276360477952,
          0.1109189724281351,
          0.26956731342525236,
          0.07939830452143305,
          -0.13805651395466395,
          0.27637169975794207,
          0.1170591138944136,
          -0.25697166578088154,
          0.3211498111103655,
          0.07893294268240206,
          0.05530353950946895,
          0.28803243167275744,
          0.17972932897860938,
          -0.08160206723002357,
          0.16756834131799472,
          0.23325707549357916,
          -0.20435633092539343,
          -0.15322026043418402,
          0.1282075525181541,
          -0.02368529472127643,
          0.2714298797285498,
          -0.1189153970032152,
          0.10420063790968481,
          0.27959444641786946,
          0.09643523612000879,
          -0.20647618755123961,
          -0.2030812602947739
        ],
        [
          0.080104169743411,
          -0.006839623985329716,
          -0.04605456373513953,
          -0.1842718943481855,
          0.00523741605237687,
          -0.08236481585369866,
          0.10031683633623642,
          0.00034670307774156873,
          -0.057170148391237005,
          -0.0030540565544223213,
          -0.09835059790123653,
          0.1675667354165709,
          -0.1452639139517192,
          -0.0430003714969315,
          -0.34431770448634047,
          0.2321929167060011,
          0.06144001733174349,
          0.02463053653115402,
          -0.2537636714328135,
          -0.013915725413246588,
          -0.03868336628506545,
          0.10446852237896519,
          -0.05557167801524441,
          -0.007329434801086723,
          -0.3881632776227794,
          0.20661644412700422,
          0.05852742446432009,
          -0.07664746279922051,
          0.20201636460149552,
          -0.07090806625401222,
          -0.2560324442009263,
          -0.02408206321355721,
          0.006912436570951423,
          0.10908561778527694,
          -0.1110053916118859,
          0.022015031761008934,
          0.25458735676203065,
          0.33374051633967794,
          -0.02422887553584832,
          0.04715387553084749,
          0.08696251702113608,
          -0.0657904253069245,
          -0.3268196634221654,
          -0.022327225041566704,
          0.09373597705912266,
          0.06867473010727729,
          -0.2371669646604542,
          -0.10117045602565801,
          -0.018729961805730735,
          0.2026165975176837,
          -0.029699980248017822,
          -0.10578730758249111,
          0.1716993201547473,
          -0.019168560602174804,
          0.12661768642014007,
          -0.2352510730912577,
          -0.10023400388434328,
          -0.20763049934688999,
          0.001080160680343513,
          0.05962075218138776,
          0.19787152087192378,
          -0.07063555364384158,
          0.08156542124243636,
          -0.1452364440127593
        ],
        [
          -0.06805723156772875,
          0.2262593650208963,
          -0.1562763158600149,
          -0.09404442569267875,
          -0.00032579048194226014,
          -0.22698426420874238,
          0.004817320639328113,
          0.09027181854148127,
          0.0512854422137663,
          0.2701463064500844,
          0.17274675280337126,
          0.17638393506546923,
          -0.0660722104387718,
          0.0782232160010529,
          0.057294957055957094,
          -0.1631243254141871,
          0.11070024448724604,
          0.3080956295942427,
          0.11772050664603977,
          0.2443193000464305,
          -0.04270416708281872,
          0.25268574310880754,
          0.36234684435922726,
          0.15563345644035298,
          0.26247177729032733,
          0.239788875027426,
          0.22043189363384288,
          0.369925979770686,
          0.19041674253112015,
          -0.15991857123287093,
          0.0383055626133843,
          0.2387926547729151,
          0.07152950240933591,
          -0.144054171580688,
          -0.03785858251642941,
          0.16635518390094056,
          0.4239116925082996,
          0.2958652447090192,
          0.07568957282479845,
          0.19790954379940362,
          -0.028893805555924596,
          0.36186136108132916,
          -0.35877033725233787,
          0.17410320749966948,
          -0.11366587886017397,
          0.23366857107196234,
          0.11745331484895781,
          0.023104179497651207,
          0.10708042493542642,
          -0.011729972148610608,
          -0.09567217270058176,
          0.21641343196942975,
          0.29445974671291514,
          0.02716215394228287,
          0.18020275904579502,
          0.28998214875592315,
          0.09797608052162439,
          0.40938216890857276,
          -0.03315694583260379,
          0.04292328293898197,
          0.18705871878339936,
          -0.06578299283023147,
          -0.08298141596205787,
          0.08910082265410459
        ],
        [
          -0.0013196883876404996,
          -0.00858902989593166,
          -0.07537259896052366,
          -0.029973461804869664,
          -0.022385871755253237,
          -0.08744278312998267,
          0.12422003841929123,
          -0.0028500009857655127,
          -0.00184005753676283,
          -0.01473730399057027,
          -0.024525961852053708,
          0.0955339801213851,
          0.15336658882523535,
          -0.18423579019433087,
          -0.08927754033274884,
          -0.2820057497281247,
          0.010557838766977475,
          -0.13064326973110352,
          0.05396232652340315,
          0.05313999903238019,
          -0.0394489691852738,
          0.13186212712246315,
          -0.26720213108122426,
          -0.06440848987890155,
          0.1491264368712361,
          0.09022104695202582,
          0.10651170935867398,
          -0.014145345621461471,
          -0.32682261321414396,
          0.034345464333892385,
          0.3123637501657657,
          0.04152779194120893,
          -0.03557858296930334,
          0.10999625131071424,
          -0.09199917101202129,
          -0.18698048873394713,
          0.2666192282063577,
          -0.19419121099484657,
          0.10310525312786255,
          0.010846804812632643,
          -0.14279632854833496,
          0.042012752736200254,
          0.11292252504266224,
          0.04749795474989041,
          0.08715313767562279,
          0.039816267486106165,
          0.10958734411884165,
          0.05095686148491904,
          -0.185937731371769,
          -0.1152618868711718,
          0.00013964927721456488,
          -0.012672286187493756,
          0.18169604042192702,
          -0.05730557461147727,
          0.08007023086540392,
          0.03228749998107619,
          -0.12828087871360158,
          0.09923489983380158,
          0.019735819410044545,
          -0.10634572803203014,
          0.1889793779655992,
          -0.08986749385974982,
          0.30926200976709617,
          0.19774238400803795
        ],
        [
          0.03373935137709363,
          -0.009301061165678665,
          -0.03113154035661709,
          0.1660336249119684,
          -0.025954614064650196,
          0.07594362467681832,
          -0.2239077179431144,
          -0.016246595134448604,
          -0.04213347330042066,
          -0.09541383377156698,
          -0.04533146883147262,
          0.07953939864174754,
          -0.06983168948688001,
          0.26736560130755566,
          -0.15663304546809087,
          -0.3581750889304195,
          0.01300605301619943,
          0.051967005286750904,
          -0.19010386327292125,
          0.043044325458555924,
          0.14458729042464052,
          -0.0539068204784742,
          -0.12423237664795574,
          -0.09015081424218879,
          0.22623029781259624,
          -0.2876090817338023,
          0.4370781792529175,
          0.020283335767844603,
          0.11594946469946298,
          0.032533915186011585,
          0.1668335807871961,
          -0.12981791724074715,
          0.015675139426769992,
          -0.06690045573805187,
          -0.09694517671234765,
          0.04803518319913579,
          0.2001452691719274,
          0.09672646967980149,
          0.00028944679452083157,
          -0.14036038123681227,
          -0.22539356636929428,
          0.047178234760687825,
          -0.23397082091965257,
          -0.09026549378264402,
          -0.0583175835359365,
          -0.1534102479861884,
          -0.03731143110140097,
          0.0031971365807595365,
          -0.2285159514064148,
          -0.18454545006482043,
          0.11319608275777354,
          -0.005902983417436867,
          -0.05335253793659029,
          0.0024499578378829262,
          -0.07418372158158112,
          0.15285388686938522,
          0.14096890679102309,
          -0.0810920085658904,
          0.009820720718045113,
          0.041448625701465666,
          0.041043156648664675,
          -0.18793913646413837,
          -0.09828378617816692,
          -0.13207491580498687
        ],
        [
          0.045524061419127515,
          -0.024354088232332247,
          0.0742731926355873,
          0.0630889149494637,
          -0.04559344112571339,
          -0.06489799426085173,
          -0.25762015736567595,
          0.016658928580878595,
          -0.09483817343070836,
          -0.3049300556830735,
          -0.062454893177498735,
          -0.027530300222436754,
          -0.08562427371802493,
          0.24596776624548572,
          -0.03447011798036363,
          0.219983441459581,
          0.14214397784539243,
          -0.08704664641929757,
          -0.24555059191718712,
          0.024713797938803867,
          0.2252435112605777,
          -0.0911852574905104,
          0.25288594840013506,
          -0.16669073275447027,
          -0.28670692640983636,
          0.010053376814310512,
          0.11814612237196119,
          -0.042303877873448734,
          -0.25098222494921196,
          0.020215349313891327,
          -0.14139125819851653,
          -0.13413142381302895,
          0.09187771761094346,
          0.13086900806260968,
          0.09434952276368831,
          -0.017403902441878664,
          0.1780958446483008,
          -0.14255278589519962,
          -0.11502073315391081,
          0.037519567900598814,
          -0.21290027972438777,
          -0.21552177181691917,
          0.13791289657531514,
          -0.03404115910085648,
          -0.09382604251428113,
          -0.1042747303306499,
          0.033916464799365914,
          -0.04951867076576514,
          0.09333408098281135,
          -0.0321457980734212,
          -0.053537815137302346,
          -0.03709700990501182,
          0.15808205454858423,
          -0.0550602891979202,
          -0.012846469816938901,
          0.06157327979357909,
          -0.21118793322676555,
          0.08696958041845604,
          0.022909652517840266,
          -0.04430964122274627,
          -0.026257291311271858,
          0.12101955092486338,
          0.03370737144252391,
          0.03128005015972845
        ],
        [
          -0.13036427496229544,
          0.16771904114047978,
          0.013930964328145334,
          0.06533426803405476,
          0.08904931138993949,
          0.19093591137868637,
          0.299297248786306,
          0.1023358144160429,
          0.08195531048678001,
          -0.06052110239878584,
          -0.07224106798594966,
          0.2534957655798457,
          -0.03697551770460593,
          0.13186891669931497,
          0.19399507983202274,
          0.28772708054960194,
          -0.10648588306773574,
          -0.06737173746460734,
          0.37724861781816427,
          0.30278453263231614,
          0.04704174101265851,
          0.08056401332232467,
          0.2610321828569575,
          0.05386704355010559,
          0.2310824455732258,
          -0.09142266988290154,
          0.09522408397211343,
          0.2931901745969196,
          0.3941062826046348,
          -0.15261803842165703,
          0.09248689525395244,
          0.4473888663267296,
          -0.056781478899301116,
          0.20881400622039398,
          0.22042065270867445,
          -0.06977772297903909,
          0.04375353479075949,
          0.21685198899274846,
          -0.07998127591775439,
          0.23365361538290672,
          0.021783247776208447,
          0.17663243331394313,
          -0.22924361369691731,
          0.13707746627805018,
          0.19821459687466486,
          0.3420095062237995,
          0.163869607695498,
          -0.17363838403547033,
          0.29949095741322995,
          -0.11704367621150703,
          -0.14179787664244917,
          0.17821829317797197,
          0.2891550817318019,
          -0.028780374557238374,
          0.1531007466985285,
          0.1415731011114877,
          -0.1857231986612001,
          0.4274907953437012,
          -0.15937521921736303,
          0.08026030989543505,
          0.13655240137558242,
          0.11492591103033763,
          0.24148572308593028,
          -0.3076427989938648
        ],
        [
          -0.06422518319162991,
          0.1450006045993525,
          -0.01737331282960585,
          -0.03215764526616834,
          0.12396233590365857,
          -0.01794823815761587,
          0.03397194453312806,
          0.012139920370840626,
          0.1422890580102248,
          0.16978560920370334,
          -0.07101542384030958,
          0.002838521008204283,
          0.27206698367064025,
          -0.12842216940057613,
          0.2899333178783967,
          -0.044646378665288415,
          -0.15346189984321645,
          -0.059016618987642294,
          0.2488601133941421,
          0.02494915520027675,
          0.2541188030321282,
          0.2892802481292935,
          0.22084316388606365,
          -0.13943513675886066,
          0.33622553145098105,
          0.16548050027824776,
          0.08054312793752,
          0.12585127989666384,
          0.3210578197362667,
          0.3089142443149607,
          0.05785197951175478,
          -0.046052067674738524,
          0.05067630298239664,
          0.029375696849258483,
          0.09752577966946614,
          0.12557522693525913,
          -0.0899712224240826,
          -0.27150083046535334,
          0.11116904484916346,
          0.121835514528983,
          0.07933900357959807,
          0.17037017607211183,
          -0.3977735479975744,
          0.1716576730785176,
          -0.09130262802744199,
          0.3090855799382058,
          -0.008446933277033114,
          -0.019416648167720936,
          -0.03575445948018961,
          -0.2641515879058813,
          -0.13080998860495507,
          -0.037620564220039336,
          0.2942558698878032,
          -0.0083193537528777,
          -0.0568304016815591,
          0.18119048301365165,
          0.2215281595968613,
          -0.06199674489270448,
          0.04920322722526038,
          -0.030971615493476802,
          0.07650176425710972,
          0.1941801229530092,
          -0.11964843207378702,
          0.04864526516395504
        ],
        [
          -0.00033180683498763776,
          0.014865651448374111,
          -0.010827300764431868,
          -0.1704465992664327,
          0.002715403562756341,
          -0.02192729850237714,
          -0.410289495436224,
          0.001282035586621417,
          -0.029469484244042755,
          -0.23534491024606005,
          -0.10618952305127408,
          -0.09521499637642415,
          0.06010535475217137,
          0.040817239812097915,
          0.1492060639945727,
          -0.07853742395752043,
          -0.04028134437415596,
          -0.09618252350432564,
          0.10073494867037096,
          0.05620773648003596,
          -0.22978701556638984,
          0.1658341110543722,
          -0.16366777668366453,
          0.0022268655032463055,
          0.27028716062131486,
          0.2001805659738379,
          0.13020832744455402,
          0.02491177102651574,
          0.04930647170420369,
          0.0773118410677683,
          -0.1021741744292562,
          0.21208921076818893,
          -0.03306834074727273,
          0.1226604650406182,
          0.09607973613844475,
          0.09400836105720721,
          -0.08230328086763271,
          0.1609249080778275,
          -0.08742396459460645,
          -0.15970329528104243,
          0.008945581126997868,
          -0.20449847284661316,
          0.15687071532787564,
          0.0024081250377444184,
          0.05453079022092556,
          -0.001664651371431177,
          -0.10923039595269253,
          -0.02658325275523296,
          0.006853452207934479,
          0.10890238724179323,
          0.034059647160439306,
          0.0036357570212214485,
          -0.15448734755474006,
          0.16549873876084462,
          0.2038211232726425,
          0.025776729670951203,
          -0.0705581341711838,
          0.042878777583163274,
          -0.03450549386060963,
          -0.08218266487609362,
          -0.20258055102614247,
          -0.07952299077208842,
          0.1095159721764404,
          0.06366265295566935
        ],
        [
          0.02084131989514893,
          0.12296505254203652,
          -0.0030697029643316927,
          -0.054042806529863985,
          0.029756379424507127,
          -0.08076680819332309,
          0.18847058090917182,
          0.07993269137946571,
          0.11950861021619813,
          0.22317836518104786,
          -0.002666872073433498,
          0.11209517434020307,
          0.16172753861698413,
          0.09193164331623417,
          -0.1419089692105023,
          0.2828247111596092,
          -0.02789783339467585,
          -0.031856424435728004,
          0.3680219985991256,
          0.08105872350176417,
          0.20720695113391804,
          -0.04852459127384329,
          0.22258783084305478,
          0.04048774904415523,
          -0.22632223195888213,
          -0.10691545862781145,
          0.2129206143628067,
          0.01853948665439502,
          0.22199301594315143,
          -0.021829673508282153,
          -0.03786453449002382,
          0.26830567360300117,
          -0.020928111261432753,
          -0.014267781218653406,
          0.06901003649773571,
          0.1463555538821534,
          -0.24486248930671609,
          0.08992993073492797,
          0.16072413338354583,
          0.12212882911942032,
          0.20641916264398186,
          -0.045111970341958095,
          0.15402899850044927,
          0.031530850954820576,
          0.07568307435884515,
          -0.018545106984035897,
          -0.18944576811035316,
          -0.07020373794587079,
          0.05655478831782261,
          -0.18863726996314878,
          -0.07909999892727347,
          0.1692740029136646,
          -0.019100624527555343,
          0.07060658006145082,
          0.0680921149925831,
          0.23679852955998054,
          -0.09484362895808746,
          0.011547936580316227,
          -0.05699543439208873,
          0.11570776914845249,
          0.18197094151392262,
          0.3421864196042148,
          0.3253352747391137,
          0.1489211108237508
        ]
      ],
      "biases": [
        0.7883022581916002,
        0.9573633481518871,
        0.09965083895704019,
        0.12437627519753125,
        0.9257977644012843,
        0.13684812906271726,
        0.6214982671699393,
        0.12615097465309677,
        -0.4958470926994374,
        0.17396219737591198,
        0.40174377584006044,
        0.8313928984638006,
        0.3472225077720364,
        0.40449266075999407,
        0.1281665409991468,
        0.17863101771399015,
        0.6170500122227087,
        0.7180719292349643,
        0.25728992344305046,
        0.7596717101417929,
        0.5115370859681488,
        0.5466275109500714,
        0.5217740035772862,
        0.5031976942344923,
        0.4679870562749347,
        0.5478610610609331,
        0.09798716946162032,
        0.2139603995992757,
        0.37007899217520385,
        0.41148462674905306,
        0.1909675901575387,
        0.4750428160550663,
        0.7810454971268906,
        0.18284955472603315,
        0.3819365927572128,
        0.006061869597931619,
        0.6819099370236189,
        0.3239301164197325,
        0.44571407913080296,
        0.7988800272661044,
        0.4743150314565962,
        0.5256008327090166,
        0.43213430113421797,
        0.5982622099505536,
        0.3661916089999918,
        0.3851888513384373,
        0.18525728698715146,
        0.806137212741957,
        0.6078845753896825,
        0.3970302130820428,
        0.1798633530092871,
        0.3175913411913783,
        0.3479638019728093,
        0.5217281860650328,
        0.4308134350746914,
        0.47517080931849764,
        0.7311976914839664,
        0.15263805041864487,
        0.6598827745452398,
        0.5051630886144116,
        0.7088690538625895,
        0.5947397418855443,
        0.5162492147350779,
        0.5612667117215628
      ],
      "n_in": 22,
      "n_out": 64
    },
    {
      "weights": [
        [
          0.6535644835500173,
          0.4130827612981428,
          0.39154051937374523,
          0.5477901210103031,
          0.6217059970477131,
          0.3744697417917629,
          0.5962735627365278,
          0.44652355437290486,
          0.6105114661517856,
          0.24042974905459377,
          0.44811843961268877,
          0.19151518802422343,
          0.6031574280300065,
          0.38345196224599937,
          0.36779657575930275,
          0.5390628425120034,
          0.3817930056791867,
          0.4407805688725814,
          0.3156305786837677,
          -2.086328165272008,
          0.3347143727891884,
          0.22188688848392613,
          0.5340581796089595,
          0.5431927897403266,
          0.0043136854902295135,
          0.44511144732941155,
          0.4230451269555701,
          0.6643497781990094,
          0.1795391056070413,
          0.4248041037403764,
          0.18793992978688784,
          0.38737743392335344
        ],
        [
          0.35139241753491685,
          0.3196021136706042,
          0.43211962570637036,
          0.3886691198941647,
          0.332710139843887,
          0.06455710365581815,
          0.5364554123235994,
          0.4930711736208866,
          0.5397544303145323,
          0.11191620988493006,
          0.19936634375549755,
          0.1116555413111587,
          -1.1447216080811868,
          0.4981975033540492,
          0.22042591713131465,
          0.5721285349661392,
          0.13113266461258294,
          0.507950789816785,
          0.29171168846779544,
          0.5291286058057361,
          0.37995708929843025,
          0.20751665294278407,
          0.27496608934352545,
          0.2916101078768466,
          0.08238618121503262,
          0.38686945845756754,
          0.2971692588964975,
          0.43018782406457384,
          0.056715102257146585,
          0.28369886795649,
          0.2985686224903695,
          0.19744318912470415
        ],
        [
          0.1896590544418983,
          0.44959288846794543,
          0.21479636029084867,
          0.37947203533435586,
          0.3854316902829758,
          -0.3955937913314178,
          0.3883637613929856,
          0.2564504800444845,
          0.5617182591002023,
          0.33869346534320444,
          0.4977936451027351,
          0.3777730030935378,
          -0.7364420870701975,
          0.3913407244585842,
          0.5668633182446513,
          0.4083534445723687,
          0.47867882814966795,
          0.4820807545410623,
          0.22365674910343797,
          -0.8864634960209109,
          0.4314737267864962,
          0.2759336624264581,
          0.5233264372612085,
          0.5657130908201232,
          -0.1317040145159269,
          0.24084840741583927,
          0.5075724967860528,
          0.2586624759293012,
          0.6414319646821406,
          0.2868343249352912,
          0.41218088576439943,
          0.16639578410282813
        ],
        [
          0.3155451095710139,
          0.24505443618937547,
          0.3203674075095928,
          0.11330824367638709,
          0.20919927879235115,
          -0.018135736244140093,
          0.09795252853125092,
          0.08221139429442284,
          -0.040438257712236025,
          0.3375108862441898,
          0.3148260754148632,
          0.28904576106106666,
          -0.01689500288241608,
          0.17228149901899661,
          0.30805539779539653,
          0.267410217703512,
          0.43464651173369107,
          -0.06764857403048655,
          0.3640902623964351,
          0.10932812835062886,
          0.24576079354665406,
          0.31057549861940525,
          0.29681663338906084,
          0.5221454750915459,
          -0.27104173985832547,
          0.08209773251098883,
          0.38522010720221583,
          0.3240704404395925,
          0.3162543941243458,
          0.013275309252813889,
          0.02999791042709188,
          0.4749758352266914
        ],
        [
          0.3007762128563895,
          0.3903324968055187,
          0.36510692943755313,
          0.41438083198672676,
          0.3264015271232324,
          -0.17328180945139515,
          0.26365766735313606,
          0.6528845727909124,
          0.3732307323782917,
          0.46783331276895185,
          0.6462889309850054,
          0.5400187813636405,
          -1.386121931627012,
          0.4241760344079293,
          0.3611773739694747,
          0.5567385062117182,
          0.7090274854909404,
          0.6054737242005088,
          0.49945811709646615,
          -1.1768455236082305,
          0.47990300675302705,
          0.23939388955063393,
          0.49112965250096297,
          0.7123806790974341,
          -0.20108300328340764,
          0.5829470117554635,
          0.33993833548526303,
          0.5277140552132082,
          0.27614527378360376,
          0.4155493122135004,
          0.5821325064689841,
          0.4099330933241245
        ],
        [
          0.3062810217363887,
          0.3793225308360949,
          0.4464852206067269,
          0.10120222968633462,
          -0.06110974872617641,
          -0.3486015537825558,
          0.4337839794779042,
          0.44898164576113403,
          0.14427987178021734,
          0.39874453487232964,
          0.23350915619491638,
          0.2868527505371325,
          -0.20107842715115432,
          0.2362558998957436,
          0.040851868846835775,
          0.38894836059281923,
          0.3047543703972169,
          0.13951590031777808,
          -0.003175040391719934,
          0.47369570684587037,
          0.12031769122992528,
          0.07368787649955524,
          -0.03351364264581398,
          0.4523573897868696,
          -0.05386228237554206,
          0.13729862218809932,
          0.18310914493340644,
          0.21096950742032247,
          0.16030759355526555,
          0.2170724150154723,
          0.3988736912499113,
          0.2368297355367193
        ],
        [
          0.4641973127591318,
          0.3982159987017995,
          0.09128442721499569,
          0.44141754834734964,
          -0.21792067935764312,
          0.13499667239295068,
          0.14707449442401083,
          0.4146754938856529,
          0.3043507385573929,
          0.37334622547554774,
          0.3615759074694564,
          0.12363628745791375,
          -0.01070397347934131,
          0.09418275451983621,
          0.056943168898858254,
          0.31800881134384895,
          0.056395103303288785,
          0.2717326208300072,
          0.29194736026526,
          0.4847680615627722,
          0.0499734339972586,
          0.3256232562259931,
          0.38832092662529116,
          0.22716771375905223,
          -0.027034549081805293,
          0.3586161659134336,
          0.06433950973925942,
          0.23450475337894575,
          -0.058191886055058185,
          0.05184001555944684,
          0.11890666396568299,
          0.021338790474910628
        ],
        [
          0.2961990256132105,
          0.34129089237399657,
          0.7788290199122408,
          0.5635970049195329,
          0.7857573348117534,
          -0.19088979789325025,
          0.45262817534485006,
          0.554607199786593,
          0.5126216116526803,
          0.2956189061515855,
          0.5603652116868922,
          0.36070268016190277,
          -0.2433239136055204,
          0.6223510644538564,
          0.3102157634657705,
          0.30055948104288194,
          0.654671080853687,
          0.5223905886313809,
          0.2971053351147635,
          -0.8037754742268618,
          0.33657722387019207,
          0.6028080762867563,
          0.777045064840117,
          0.4073186911395511,
          -0.23798940676585217,
          0.34679033315140634,
          0.46282923367949375,
          0.3612395551877748,
          0.2619881147830773,
          0.29230742987265035,
          0.5201808853541607,
          0.7839524348392629
        ],
        [
          0.5809161348573934,
          0.4886303672000773,
          0.3604322449998006,
          0.506273999368437,
          0.4048152110366482,
          -0.3180061345591126,
          0.2488486566947587,
          0.6465013164050745,
          0.39420635050357977,
          0.26423020759839017,
          0.35189958510300945,
          0.3852389167873087,
          0.44988406902090017,
          0.49931697270068387,
          0.5474817911321412,
          0.1872544065873666,
          0.37020963064238993,
          0.38675681481263036,
          0.1976680914499381,
          -0.619763403080319,
          0.570118804408775,
          0.22420833378639582,
          0.4570475344415931,
          0.3029439987239534,
          -0.32045054662257666,
          0.3042579459093238,
          0.6854636167718234,
          0.5969303621547541,
          -1.3948801723398685,
          0.43750043964080293,
          0.20498949275767697,
          0.46985029444409554
        ],
        [
          0.25176529643027695,
          0.4225312332850455,
          0.06840720328814173,
          0.2579561996929256,
          -0.12405563720851759,
          -0.10316319052990311,
          0.342673079146294,
          0.25907746139992777,
          0.09925071236714496,
          0.20612979420233493,
          0.23408545481946272,
          0.39881434442373026,
          0.4069539656361133,
          0.38926810398299927,
          0.39552673248255754,
          0.16948438100222135,
          0.27806349882026554,
          0.07022701876910505,
          0.1369434926295695,
          0.3989557911366139,
          0.04171433812144444,
          0.3774551606141919,
          0.18647181922634745,
          0.3383929366305925,
          0.0003114644289048975,
          0.4631041708000897,
          0.3330593550148401,
          0.314547488329902,
          -0.39631978246150695,
          0.2530203499466015,
          0.04786890422743021,
          0.3828741829075947
        ],
        [
          0.34080307726957637,
          0.39236540134672915,
          0.09569964133779524,
          0.10559272124666834,
          0.27728476500573246,
          -0.07177299956582248,
          0.08094902981380593,
          0.08167730205622135,
          0.45232570325559074,
          0.41687761094458076,
          0.22143367469552172,
          0.1996172415401113,
          0.4714830324586648,
          0.3768768039745163,
          0.3740748349491082,
          0.14497836557578614,
          0.12864060503329097,
          -0.004677634094418236,
          0.3845663360474355,
          -0.4572418854945257,
          0.19940590748125114,
          0.021317288636234645,
          0.09497543437273644,
          0.5505580130975206,
          -0.15841212580755104,
          0.44646493314527097,
          0.38523290079925254,
          0.2512467965968022,
          0.23296574208183793,
          0.134312117155015,
          0.32049663102757986,
          0.4505159129383725
        ],
        [
          0.32388323051119006,
          0.2830974931323109,
          0.05627062722246056,
          0.5065153187555884,
          0.23951294790704564,
          -0.1644438684490038,
          0.4905265097480125,
          0.32850579467640817,
          0.2347768355479431,
          0.38400494803741775,
          0.4148318923901021,
          0.34169319391068526,
          -0.6103813653173409,
          0.11158911676997957,
          0.4707708552661424,
          0.13048953476535727,
          0.14029086297414375,
          0.10156964964660785,
          0.23572311538983545,
          0.5148833858345625,
          0.5025592865564042,
          0.07346562848336317,
          0.02413946785444746,
          0.1309395661887714,
          0.11774561483675025,
          0.3481971717469649,
          0.178769490712047,
          0.43228167502154957,
          -0.26119766869271843,
          0.43565053015295135,
          0.4466787002820253,
          0.16110776237084856
        ],
        [
          0.3917169812251655,
          0.2169350181306299,
          0.4303695870645409,
          0.36189335300598735,
          0.1823766325306078,
          -0.15021383902349825,
          0.08785556237321443,
          0.2753231148476516,
          0.38533273341723284,
          0.460406656731044,
          0.011962270078604396,
          0.07609102626032994,
          -0.031510819140171537,
          0.264905326425001,
          0.3982100256770865,
          0.1021180944046483,
          0.1840919264002422,
          0.2666989179739416,
          0.36331042252628065,
          0.0030587280912899154,
          0.30302039735867403,
          0.185125049445599,
          0.11648673809767009,
          0.2910217086254287,
          -0.0047397722750553446,
          0.42863245569084635,
          0.3202606831469784,
          0.36679822738306633,
          0.01272214308898037,
          0.23802228378363205,
          -0.03554358841542309,
          0.1178591544718588
        ],
        [
          0.350926021879803,
          0.47555205788957655,
          0.04258226327691526,
          0.19216678436104767,
          0.17119219773197325,
          -0.30175919890360114,
          0.2534635153746373,
          0.35859139302869697,
          0.1970531634372158,
          0.07798460547576203,
          0.15119571004531232,
          0.3720130039798885,
          0.36784077445736685,
          -0.07704057431945247,
          0.3599968153961289,
          -0.003745152637280739,
          0.27109903172705335,
          -0.09890294234270353,
          0.4610691318543377,
          0.3746850878262179,
          0.1577016259101595,
          -0.014071710327948366,
          0.11445440618838339,
          0.42854382208362557,
          0.19625800764347504,
          0.17415893925428796,
          0.2137398303797017,
          0.33769457453832175,
          -0.07300375592468766,
          0.2739254970360289,
          0.1447936438399994,
          0.1965374031427692
        ],
        [
          0.28534526930722004,
          -0.06403510468968374,
          0.2527857164655965,
          0.12050591409911736,
          0.06178004636548932,
          0.07987451873861859,
          0.20894647431430305,
          0.18036963315578317,
          0.14135272832069787,
          -0.021368344395793507,
          0.22120627112843033,
          0.2180635174038689,
          0.6997045448785824,
          0.13666665999117394,
          0.2760007441406392,
          0.33695099057209466,
          -0.01817844296107664,
          0.13011460558455962,
          0.19011974122823475,
          0.14807486381935256,
          -0.027139133034892605,
          0.020916247657954783,
          0.29324395932632136,
          0.2994380938446787,
          0.0635608779136857,
          0.19814756348868792,
          0.1661618175544544,
          -0.0010021224191566096,
          -0.135189858074168,
          0.1537153392960759,
          -0.06222845228791806,
          0.05045053500492482
        ],
        [
          0.15212156143950456,
          0.27932178822936854,
          0.40994214622880826,
          0.37763141922623067,
          -0.10115841920827419,
          0.19365486165576815,
          0.17064877279483517,
          0.2952564650812924,
          -0.13871690917966956,
          0.1254986787166183,
          0.3258996919044088,
          0.10247817106370945,
          0.7135936812056024,
          0.07839369191942377,
          0.005551527975749134,
          0.0928924573326635,
          -0.02728040005215079,
          -0.3404694756304821,
          -0.07533879108003984,
          0.8080808875104462,
          0.05723503459838184,
          0.05741567044964419,
          -0.05247192548516753,
          0.3836372135186017,
          -0.1947808697657011,
          0.12982169413941919,
          0.35295586917370264,
          0.334487027082125,
          0.031028449473447784,
          0.24435583687355272,
          0.09676376366963392,
          0.16094262637704201
        ],
        [
          0.1677308971071631,
          0.12843126491270845,
          0.4679749269977289,
          0.35031509139858363,
          0.21505658949806797,
          -0.007803155553689437,
          0.4643422061356693,
          0.18886127484335494,
          0.3520343653321515,
          0.14669618690060798,
          0.448284524616107,
          0.4088588629217345,
          0.2381152682365445,
          0.08351186107613098,
          0.10432610117497941,
          0.23064640579185494,
          0.17550572973120818,
          0.13126869508599495,
          0.5386469306195348,
          -0.3513370879495824,
          0.24443209590959977,
          0.41291941124666215,
          0.3054954461481243,
          0.4894785462418814,
          -0.2707418363866607,
          0.34703164511617285,
          0.11764175359050809,
          0.1459461292940282,
          0.20987890479014723,
          0.12659503969103242,
          0.327245692959623,
          0.3072387911540994
        ],
        [
          0.20981754886148354,
          0.48124071968844595,
          0.05105268167767406,
          0.3673696218699341,
          0.3364934555435855,
          -0.07827970385878544,
          0.4562802160623901,
          0.07122332809602093,
          0.17478543169555819,
          0.15473714652979637,
          0.38241154839257996,
          0.5122802914006069,
          -0.10479341187841332,
          0.28168867868930725,
          0.1163090031682832,
          0.3082974355817918,
          0.20277187815058414,
          0.3710906627148331,
          0.3284957738466419,
          0.23768949238592807,
          0.10315006994096325,
          0.032427366670420704,
          0.0893461802912082,
          0.16287606711961708,
          0.1028928182775761,
          0.31767628277355525,
          0.3109152860780229,
          0.10033731449609966,
          -0.03519518435810886,
          0.34505735016184114,
          0.027224359069276463,
          0.39349510989302117
        ],
        [
          0.19721529082654046,
          -0.008339681556174828,
          0.18533179938736102,
          0.1948691835597673,
          -0.24875159689976717,
          0.041033870259356585,
          0.3504894369787831,
          0.2832340342013417,
          0.07625849376969068,
          0.15987046564512575,
          0.27225185087070564,
          0.22296939359306328,
          0.13224891269554606,
          0.10291662379885175,
          0.3558365730055505,
          0.17888049591996766,
          -0.1211987747551487,
          0.12225015350973407,
          0.05309755845796054,
          0.6320313244979293,
          0.03280814555534289,
          0.023759197631845964,
          0.2829264741569269,
          0.21511377408093818,
          -0.24410618586483543,
          0.3779716457922605,
          0.3870361757180421,
          0.3866684494348662,
          0.0847436738336874,
          0.1761352248818858,
          0.39471067806261245,
          0.33679087017037834
        ],
        [
          0.18199916637989058,
          0.2070444543355635,
          0.4251861750482154,
          0.6322888570063387,
          0.44586623379579327,
          -0.11235563160705234,
          0.23662660726253926,
          0.5235825780746832,
          0.5561075571458167,
          0.33272630889466515,
          0.5377679969164331,
          0.6369134138407383,
          -1.133739441908925,
          0.419875815786206,
          0.28009241738365737,
          0.5539953440361568,
          0.4228376624288411,
          0.5021898160894852,
          0.5576657469237899,
          -0.33649732873112653,
          0.6407641384706909,
          0.4126165228381315,
          0.24471882793735833,
          0.5275642054164209,
          0.06432659077362317,
          0.33563738274260874,
          0.6136812451517035,
          0.6415521487484749,
          -1.038714890065259,
          0.66286142195552,
          0.22561622818007832,
          0.28044891677156164
        ],
        [
          0.0765680504406763,
          0.4559334457960257,
          0.3457687737280257,
          0.09208801471640247,
          0.03278562183734605,
          0.050680962697101706,
          0.030858941240619144,
          0.45870368060318834,
          0.3464943962313421,
          0.25939826180413716,
          0.4809583515378548,
          0.2155931756760757,
          0.4100397654463385,
          0.26774862441094033,
          0.31939645020643453,
          0.09204857984692746,
          0.3928393536828628,
          0.0659089460222059,
          0.09321424537224553,
          0.4948682252535256,
          0.30011222194886683,
          0.2041442288973792,
          0.36265545016149003,
          0.46118591774086726,
          -0.273324894168236,
          0.37671386411910623,
          0.11480658481864506,
          0.45101880421445983,
          0.06642924684007442,
          0.2341402186437893,
          0.3243440926349843,
          0.17804959341951543
        ],
        [
          0.29435245783861275,
          0.4530921630499336,
          0.2874650829873636,
          0.23201517609591332,
          0.14066205071287097,
          0.12397405180308764,
          0.19164555290964774,
          0.145032181857228,
          0.33214367708729536,
          0.4495409848524339,
          0.08526905711119036,
          0.1568175032985717,
          -0.05848514496824666,
          0.1529514096661376,
          0.25751842369982414,
          0.41201134740912704,
          0.29703581875255586,
          0.22897918412306462,
          0.21452205618622572,
          0.40086230725178257,
          0.2982525855984071,
          0.46125961814934946,
          0.314413055442723,
          0.11959712222470995,
          0.016935309577354375,
          0.21653307737947386,
          0.40262367923085646,
          0.09466567848069311,
          -0.3867541442689166,
          0.4736235739658175,
          0.12782926073050854,
          0.4724805384034738
        ],
        [
          0.11595306610158004,
          0.3012823346244493,
          0.34209254611346107,
          0.24579645280391063,
          -0.08782986054428271,
          -0.50293342815302,
          -0.005517226627539749,
          0.14179752430558681,
          0.22987402750448002,
          0.45148210028313346,
          0.4100572387502019,
          0.3649391381887967,
          0.08852893515296986,
          0.2547914690994209,
          0.10839441554134538,
          0.4369147334112596,
          0.2324356008097158,
          0.09160429083361558,
          0.042227064267391964,
          0.2866359143659184,
          0.22569951254850049,
          0.34044805221429086,
          0.22961730232567937,
          0.18282846742650552,
          0.12790339376489188,
          0.04201619938108352,
          0.2042837365271262,
          0.009303891769821115,
          0.021904466978551237,
          0.4351591791925852,
          0.08581364265204394,
          0.42238693628952256
        ],
        [
          0.29579873830820874,
          0.571415567627757,
          0.5085945180233391,
          0.5302385276679769,
          0.05197589743407432,
          0.2507791898779772,
          0.47308537242988735,
          0.28993799328370995,
          0.4888050549665801,
          0.2444163172098289,
          0.5298936429492418,
          0.1619428127809598,
          0.39781123870916746,
          0.3510554983150386,
          0.15011279560492263,
          0.2308534605109906,
          0.10972230002638224,
          0.27904789714504585,
          0.26303409713740544,
          -0.1642607431482202,
          0.28136166698705195,
          0.2161399415087382,
          0.5047250594227395,
          0.15212980256057013,
          0.1275769122565476,
          0.5445451415284379,
          0.46466707614433916,
          0.4355000675023172,
          0.054601019731725445,
          0.20609949669412747,
          0.12306433703479619,
          0.2498296641940028
        ],
        [
          0.38921362357041317,
          -0.006650367917620269,
          0.27534956910928227,
          0.4750093385081561,
          0.17054464832206728,
          -0.20269829283493399,
          -0.01887646255484914,
          0.3977721731123131,
          0.16352014063450607,
          0.03370214956474419,
          0.01667632606569095,
          0.4266771411234112,
          0.5262207616960173,
          0.2787267134119383,
          0.4090060970780152,
          0.2574336047275283,
          0.1541366498738288,
          0.006786118038509616,
          0.13507211382857046,
          0.3692054445870542,
          0.3709529896409019,
          0.19363258002086858,
          0.38754881950631753,
          0.20641758132824517,
          -0.01053956810183412,
          0.290289739020675,
          0.28572465695900845,
          0.318640433159059,
          -0.09653325394281134,
          0.2411964482554103,
          -0.011074935881969394,
          0.1698802960058791
        ],
        [
          0.24449385178400676,
          0.316176174212845,
          0.48168938292219526,
          0.30647585476055667,
          0.16276716268090574,
          0.020652619408820704,
          0.29818721733803205,
          0.045865982350318524,
          0.0393355947047535,
          0.17824180199915263,
          0.22710380903081842,
          0.01759178338618894,
          0.0001620137376468573,
          0.05385326264789718,
          0.47709077620506674,
          0.1639430735249568,
          0.1702050944014714,
          -0.07180734803390464,
          0.30395689815872207,
          0.48059843344156095,
          0.11629158983453013,
          0.1772051491826891,
          -0.04424968936702059,
          0.013258489984887425,
          -0.21792518685680226,
          0.01784120965339018,
          0.05655824817260841,
          0.17540008030314497,
          0.08700309463747573,
          0.29200508664675023,
          0.21727148821532824,
          0.14987140824568104
        ],
        [
          0.35362629794380285,
          0.15675151769161683,
          0.0037098340943731503,
          0.26390023212933195,
          -0.25787606666843466,
          -0.22854528557225776,
          0.2035631380394425,
          0.38386361386643736,
          0.11346234371167861,
          0.30287026112753473,
          0.43863439807572163,
          0.017110204585500326,
          0.40892605080061484,
          0.09096283957755155,
          0.16252503352287567,
          0.1567303853158112,
          0.29450600053981524,
          0.09731031412842743,
          0.25535462959930083,
          0.1854253453403292,
          0.3727051941066422,
          0.33796961929943986,
          0.3047070669506409,
          -0.04062495741225217,
          0.003995720275246338,
          -0.013089912384636004,
          0.08261990900476981,
          -0.013547467849115933,
          0.16586527866249082,
          0.25695799568711136,
          -0.028345276016182037,
          0.15312978830473517
        ],
        [
          0.23772967659714705,
          0.18496335541103773,
          0.06995040269120488,
          0.21749322410064095,
          0.1753016800137075,
          -0.052216135755455105,
          0.03293601810253399,
          0.18926888468619346,
          0.36829719756860085,
          0.33430544401624684,
          0.3351809044192582,
          0.1784138604983082,
          -0.028007974590698124,
          -0.08341102005790116,
          0.31016477505971246,
          0.4532712567919758,
          0.2187440072754449,
          0.2845992464037411,
          0.3621207461805297,
          -0.056917976186221964,
          0.45923247205268763,
          -0.035679200948052645,
          0.22984672986584953,
          0.08218773298660373,
          -0.30774903112799845,
          0.21088172012229153,
          0.15134173203664109,
          0.23684521030036806,
          0.12233127989840155,
          0.03493873170632082,
          0.03452442447694501,
          0.2846919464102496
        ],
        [
          0.14921460934190028,
          0.3445450285083226,
          0.3151204673531392,
          0.40238154295016565,
          0.08697987894475162,
          -0.31846837393265137,
          0.2832711345171012,
          0.12021351245162061,
          0.031539058790860816,
          0.37025537541426196,
          0.19407077768406747,
          0.3739599062709549,
          0.01718760846325003,
          0.3254543256022611,
          0.4295193640364978,
          0.1916278407264302,
          0.05466513131406462,
          0.088704640393426,
          0.16205759735818198,
          0.7223170677450648,
          0.3394963815300492,
          0.24155917767630655,
          0.10433943135120217,
          0.07147153509814819,
          -0.10773710824532169,
          0.05480631904384214,
          0.43949809071637913,
          0.14907940327415925,
          0.5673655844584378,
          -0.04203321302561653,
          0.26700491744453114,
          0.3089941651614599
        ],
        [
          0.18232174368962487,
          0.05636239316694313,
          0.23500416256704776,
          0.17967868756974742,
          0.17083959048877603,
          -0.02469687601195705,
          0.18732054609897414,
          0.1336234334763346,
          0.43268610344260655,
          0.23758173071220035,
          0.3506762218893721,
          0.08342109556564885,
          -0.2919681405973771,
          -0.02103077868586624,
          0.2627712896986584,
          0.4947876936240781,
          0.12997544439924927,
          -0.10967978794573047,
          0.0292511103447145,
          -0.29713668846434144,
          0.10997202054055169,
          -0.03810114407011542,
          0.3592948240587654,
          0.25471707257541715,
          -0.16779166557446273,
          0.4754515148189675,
          0.08951783466601679,
          0.5101172278195535,
          0.26735396720757204,
          0.4531675143323689,
          0.27983792106870864,
          0.4420509408260931
        ],
        [
          0.4685125089549327,
          0.15745787797799293,
          0.4944805645098457,
          0.21175464009620923,
          0.0006142663628035284,
          -0.23144771493595748,
          0.23753940381712138,
          0.09861657792152112,
          0.2174351859113499,
          0.28046036794732604,
          0.3832055829639336,
          0.4223873482374777,
          0.01753627757139543,
          0.10158422420948003,
          0.1320248875200317,
          0.1085103390480612,
          -0.044827455855533556,
          0.016623110035835022,
          0.14163550238826725,
          0.6107036371940221,
          0.300648056439546,
          0.0983953362067304,
          0.21258955630891446,
          0.08752686612179689,
          -0.10254077432474999,
          0.33158863083098106,
          0.26152319182485356,
          0.22049405072029932,
          0.5460484959228693,
          0.3942538153354658,
          0.28758086254260945,
          0.30365712130877337
        ],
        [
          0.3416544956480058,
          0.11588445242765213,
          0.23061975852349598,
          0.04456490219677636,
          0.07332455071455152,
          -0.1843648940676219,
          0.1227560627754577,
          0.5090893485067789,
          0.3933803259537209,
          0.3695013117322417,
          0.274104853220789,
          0.44709218938156103,
          -0.7061034567737675,
          0.354135576910133,
          0.07478231451013108,
          0.4086919719486472,
          0.08504000775799832,
          0.3013132364748698,
          0.4840721157911898,
          0.27335913216276,
          0.260712909274246,
          0.4410748431346121,
          0.23386658546437003,
          0.4580116804410873,
          -0.026460040477245504,
          0.20394284929997678,
          0.16334196938435622,
          0.13600209283837025,
          -0.11253531114359244,
          0.2266426666669808,
          0.23654758184045518,
          0.2729638286181686
        ],
        [
          0.4346041998777013,
          0.5599494274630282,
          0.6322265266854997,
          0.3392176032907788,
          0.4862962486752458,
          -0.11549260978943554,
          0.41020799770774263,
          0.6244886699148512,
          0.19480211903772995,
          0.1618965535712045,
          0.532418428172451,
          0.33345787240855274,
          -0.4295469371819826,
          0.5584883474873885,
          0.1338569959211591,
          0.5587306493229068,
          0.3111429142451454,
          0.32723505634359623,
          0.43049949467310494,
          0.10692455986174906,
          0.15081174091962515,
          0.32595379695954363,
          0.4817717881474282,
          0.4946135169744172,
          0.03653933045192231,
          0.19651311699475565,
          0.29383046628773996,
          0.33232791595866384,
          0.10996446152721087,
          0.23350153683890953,
          0.19832478931632383,
          0.6083831758642444
        ],
        [
          0.06342707818995445,
          0.5313493120034645,
          0.39049717137641793,
          0.46297725425378045,
          0.019446295254510897,
          -0.2686126638049387,
          0.41692489704851887,
          0.46948694711830236,
          0.32830923465760226,
          0.10950661859520217,
          0.40957136249690945,
          0.4227787316328354,
          0.5441343111659471,
          0.3269884848073375,
          0.45565406958980886,
          0.34673229169328873,
          0.019093512466056967,
          0.1592460878916104,
          0.08250855832388508,
          -0.06350554169644824,
          0.25580235228683784,
          0.01869712649587322,
          0.2038177123609752,
          0.10791067991303949,
          0.07917046957395606,
          0.5215282111291254,
          0.08036535290436686,
          0.5090096589984158,
          -0.6968679205703145,
          0.20249014937665225,
          0.046569493723505107,
          0.29896597643359274
        ],
        [
          0.38867270600564546,
          0.36013378724072714,
          0.0463658299788394,
          0.055152146249360885,
          0.02680581385906275,
          -0.14763389215073286,
          0.12237393116650161,
          0.159962325305131,
          0.3424352412528464,
          0.4710555442338408,
          0.20243079029187458,
          0.46005402312878707,
          0.23453017406100757,
          0.20314480195645038,
          0.11245024329113798,
          0.3280750222049423,
          0.4229723683117224,
          0.16909798211674587,
          0.18969027689161866,
          0.13804059899810728,
          0.08683123996168023,
          0.39289946322105795,
          0.22175415498676804,
          0.24343392177919607,
          -0.053878052539752246,
          0.3258936146847517,
          0.0550893122715153,
          0.3464630671224823,
          -0.26953265065612864,
          0.37283889721673696,
          0.38759298933403563,
          0.4175885064794947
        ],
        [
          0.30649582004688963,
          0.31028353494173905,
          0.13170458511000055,
          0.4364219796098992,
          0.02479117190365748,
          0.05392089764924075,
          0.19263752679429674,
          0.1231779381101235,
          0.2907698604201493,
          0.07045808545913466,
          0.4041920427324135,
          0.1965350608094038,
          -0.15338031973249502,
          0.2427036451018585,
          0.06220869521823471,
          0.17812004167642906,
          0.31463768167057254,
          -0.06989384542923797,
          0.460893084791319,
          -0.28462250186900395,
          0.18275892106997413,
          0.3393916892353589,
          0.17989102449585925,
          0.10694163875538915,
          -0.1523141607169478,
          0.18131333770081068,
          0.4758140977838482,
          0.2148117275107408,
          -0.2183472394841732,
          0.49664880806511247,
          0.23653123120470085,
          0.5093646570004983
        ],
        [
          0.12399128659143581,
          0.4533830141209317,
          0.017301724091944682,
          0.3127125260180146,
          -0.03941944165952188,
          0.1768161517654647,
          0.23828951698699252,
          0.3205881304165099,
          -0.13030019896690515,
          0.05196307362679696,
          0.31516478668954573,
          0.2940035537859339,
          0.5824173619182684,
          0.23202893582294876,
          0.4328105389808376,
          0.3145695231819979,
          0.020592625195328517,
          -0.18250950364703514,
          0.3534198216461444,
          0.37657383962722085,
          0.004995583266444288,
          0.04788777116508904,
          0.3530807702419269,
          0.22331623158678193,
          -0.09513676192327354,
          0.20109551499138947,
          0.0851834340417408,
          0.16048567978152367,
          -0.028643981460262903,
          -0.05388610787270288,
          0.31651184889479533,
          0.18453928751611814
        ],
        [
          0.33172186333449966,
          0.38148469315999445,
          0.06362576877392984,
          0.2828215763661841,
          -0.08002058988790173,
          0.11284650055450363,
          0.026552029349802234,
          0.2929826509200577,
          0.1373854580608914,
          0.10024698168084309,
          0.014218488473337574,
          0.2737518082666563,
          0.13418750649338423,
          0.031594386112767485,
          0.270925250105591,
          0.1451961635006064,
          0.19961167304710964,
          -0.16643239730055026,
          0.3920239914114761,
          0.3290295965947365,
          0.14447444778743934,
          -0.11698372362432562,
          -0.08918557982110879,
          0.21600215586197385,
          -0.1916892257504101,
          0.37519262720129104,
          -0.032572322363684084,
          0.14154107948870265,
          0.4489258764373467,
          -0.08475564309121993,
          -0.015280291858121364,
          0.1652700983969416
        ],
        [
          0.2773778920687503,
          0.25768276479550944,
          0.33454310208377785,
          0.3635911693633624,
          -0.0859742988111033,
          -0.18484810497080398,
          0.5198150249596197,
          0.3220982350138945,
          0.3516385850518479,
          0.2014399480027303,
          0.42577935714222154,
          0.4347648633333273,
          0.314272422630229,
          0.507757577458315,
          0.10848290507432375,
          0.06313046685353457,
          0.37999399536494327,
          0.3273884119596609,
          0.1111113301995302,
          -0.16321987935168986,
          0.08383454355414782,
          0.13313886154822704,
          0.39066428255614766,
          0.3243891767981009,
          -0.13589995852607528,
          0.24414424913312216,
          0.0661250564833471,
          0.22702393745485983,
          0.39600568049562773,
          0.5021528497464769,
          0.44373479471652033,
          0.08295756225259678
        ],
        [
          0.5183799312668887,
          0.4559566613532997,
          0.4677158429560951,
          0.3011354513316992,
          0.13725193501130672,
          -0.07215452794538907,
          0.06990575133277076,
          0.19639595494742032,
          0.13201043265379964,
          0.2943194872853755,
          0.4242521340243623,
          0.2916384904476978,
          -0.6485780267420238,
          0.477175999433081,
          0.5182364189029262,
          0.4500799678873242,
          0.5141217699135368,
          0.22986468199812396,
          0.5391807044291941,
          -0.000507018684838121,
          0.2586837957205713,
          0.12321618411867823,
          0.1473589885675283,
          0.14123572555999736,
          -0.020499422428372303,
          0.4550487182505276,
          0.36297827817196177,
          0.15823635749073323,
          -0.42142696671860097,
          0.34516450294074963,
          0.22324054030221518,
          0.4132747551315741
        ],
        [
          0.17711481522691125,
          0.21357816291188017,
          0.5078731364316712,
          0.19776030307318307,
          0.1267164408728515,
          0.14894224214147747,
          0.3607748583540396,
          0.08907517739507124,
          0.06285021627246411,
          0.04081837647580751,
          0.3413166874704244,
          0.25605530396364906,
          0.11512083381233981,
          0.48214489228123575,
          0.29413300233355355,
          0.15976134499862107,
          0.23247722162413043,
          0.24984133432959718,
          0.07584216282103767,
          0.17348921126469496,
          0.46241355114170607,
          0.19365976707748667,
          0.26193059663131596,
          0.2655671634706149,
          -0.30683492172405047,
          0.14053995350670956,
          0.28197775287251053,
          0.16838787624282625,
          -0.48218221069424577,
          0.41320467757162294,
          0.4979782572618997,
          0.4483800400047693
        ],
        [
          0.41446212767129764,
          0.12617163675855983,
          0.49046476768837555,
          0.10671755280285682,
          0.2777952972740253,
          0.1818210934265822,
          0.3562442980727407,
          0.49945186724616736,
          0.1943687241591044,
          0.1293008449770298,
          0.21126691257913835,
          0.2953928472659319,
          -0.014709538670349773,
          0.21475412099383975,
          0.48702151215552875,
          0.09726505073622067,
          0.3139217304968884,
          0.302316126758947,
          0.47388024741599055,
          0.5744131546340259,
          0.274658097293096,
          0.4173545116584573,
          0.3513192305395973,
          0.09346191749340893,
          -0.08288043143959184,
          0.36392867623185177,
          0.12582063328833626,
          0.3198161617904178,
          -0.027581584785681228,
          0.08309821308019792,
          0.25652896537699027,
          0.39798582697443363
        ],
        [
          0.2257518765502459,
          -0.02073845532863544,
          -0.010681621093546922,
          0.15552557444040108,
          0.19032504896867614,
          -0.10360067672303137,
          0.2595468085505263,
          0.09081907877271202,
          0.034652720768392126,
          0.3966196330826538,
          0.32990238144295814,
          0.01890959699224406,
          0.4218546545614036,
          -0.10774032478932598,
          0.21340467910307437,
          0.30188985991234124,
          -0.03816072049084229,
          -0.08378461463540769,
          0.1697705137525896,
          0.6460755744278899,
          0.4800784800621545,
          -0.07094732191803302,
          0.3212792354969975,
          0.16787869088470558,
          -0.12137465559280894,
          0.3528818560593401,
          0.43827988859701683,
          0.45132285898415875,
          0.49431865815744036,
          0.16073274673482876,
          0.3203465122305947,
          0.10905091108529179
        ],
        [
          0.4288974635772988,
          0.3133092883145288,
          0.47594488018033004,
          0.2645979985479056,
          0.16069944324109167,
          0.13519092312414685,
          0.175266178530938,
          0.4034833548603996,
          0.19172575612272177,
          0.14028179941230307,
          0.13824613331516597,
          0.21025381145859823,
          0.2034422621405081,
          0.21950350907166358,
          0.5842073692338078,
          0.4154350740640012,
          0.30020360476011465,
          0.35844867455575474,
          0.3864674696597994,
          0.3238912000520359,
          0.28974564977290407,
          0.25649130916798224,
          0.5681489999647305,
          0.6166354238289594,
          0.10623012887213593,
          0.3425266397641756,
          0.5326681246759744,
          0.3886929752473519,
          -0.37428354585062756,
          0.25406145689861437,
          0.403585962633198,
          0.23402322462881398
        ],
        [
          0.22650817040481191,
          0.4802876993218845,
          0.178172493837265,
          0.10326615378367907,
          -0.03545873875946342,
          0.07995116061227821,
          0.31149039597053796,
          0.27213320108965433,
          0.4197266599229954,
          0.461921077831784,
          0.2095758672109254,
          0.39800939545529074,
          0.5325883912390641,
          0.3639047952304746,
          0.12483190555609736,
          0.4897882008459244,
          0.2604409751630538,
          0.08708080940728219,
          0.2650682897359579,
          -0.4406632516447025,
          0.13695221163222165,
          0.38226394916671536,
          0.02642793785370111,
          0.27419677648077784,
          -0.06318881454881169,
          0.08715741747399307,
          0.5481436411842847,
          0.18686834712327335,
          0.006153016049178879,
          0.22152254194131565,
          0.1391128598861055,
          0.0738774789719786
        ],
        [
          0.39390818582995535,
          0.49640360232751823,
          0.1466655964561972,
          0.36214156242837015,
          0.21528017118938028,
          0.18523377847812894,
          0.2137334590529885,
          0.18489965775039907,
          0.137072577126963,
          0.3732256204780066,
          0.42075543236577995,
          0.10925831548420536,
          0.3280650730527496,
          0.4375041371755297,
          0.4151402731605656,
          0.5122569391092718,
          0.3286752659099825,
          0.07125822694766658,
          0.31582238915841676,
          0.37322785432349137,
          0.07851292299801786,
          0.22780433318006368,
          0.3457714987615067,
          0.11504219234463724,
          0.061377635455093595,
          0.314212240522275,
          0.506408721453285,
          0.04662779598215902,
          -0.2192822297490395,
          0.28730699012044447,
          0.1321382520023277,
          0.38977296284441154
        ],
        [
          0.39375492165197307,
          0.0700264496454913,
          0.2872405632968329,
          0.28086929326265025,
          0.013153506415703724,
          0.17264516775191435,
          0.4112049866514463,
          0.3771930362898745,
          0.302996239462232,
          0.24449790659944395,
          0.470161813053967,
          0.36355859545153746,
          -0.26804767541698127,
          0.383186325942749,
          0.14902318167276915,
          0.41970030527508784,
          0.05969460358476282,
          0.024941144677215032,
          0.1854152331429066,
          0.6408323620298664,
          0.44905508696506313,
          0.3095616296281231,
          0.35744488703566435,
          0.3074353335164013,
          0.14514328351991332,
          0.26422593043187753,
          0.21746552855850104,
          0.11316417559128898,
          0.4873241255454526,
          0.37167341473135296,
          0.16479852193174932,
          0.03980138036479526
        ],
        [
          0.5614311017088021,
          0.11087176767648803,
          0.4803238999981404,
          0.6022225028943086,
          0.2574382799446092,
          -0.4137904755005398,
          0.4619252057672855,
          0.5381870895382617,
          0.3362958333146069,
          0.5759296813622292,
          0.12283794252687259,
          0.3532055935834478,
          -0.43889116213112234,
          0.48410519240995054,
          0.18232938188382147,
          0.5034407865298278,
          0.36319829003167,
          0.252716780473366,
          0.17161173676969102,
          -0.12994254576158756,
          0.20236254783393814,
          0.22550461070417013,
          0.2625269787352745,
          0.5568474488713299,
          0.02243718324635297,
          0.505652074910755,
          0.2482878847096265,
          0.42861995328244323,
          0.12607893818137145,
          0.5502106806403873,
          0.5301233922100703,
          0.1243881459833448
        ],
        [
          0.4015735368798227,
          0.06289374026323821,
          0.327410018884975,
          0.1906843413612049,
          0.0325823379937636,
          -0.09682334600217839,
          0.3300251468411184,
          0.22326102043026086,
          0.3136662881239773,
          0.23587397887781494,
          0.06664962511828225,
          0.42527698461524305,
          -0.6050838739018273,
          0.16575456309648784,
          0.3700473398266778,
          0.2006926920462461,
          0.017388326271018575,
          0.09957350448513196,
          0.5102650117021282,
          0.34214412111297704,
          0.38659245989104823,
          0.3031645417480606,
          0.1133377725798697,
          0.25936707988691476,
          0.03409382744081865,
          0.09247600504805084,
          0.18640880823092498,
          0.18084632597679504,
          -0.13949454840345443,
          0.5474595140533425,
          0.04038170427528711,
          0.3105264818096012
        ],
        [
          0.13732484524885993,
          0.5045760540610278,
          0.0962423827970575,
          0.23749229313317982,
          0.21414082089356004,
          0.061367756356766584,
          0.19099282656303299,
          0.21315656596850951,
          0.16563610132913736,
          0.15759225645175975,
          0.12076749195624661,
          0.2644629594226234,
          0.5791796675507583,
          0.0866701859377673,
          0.34632352366373503,
          0.5123216689398878,
          0.2964015210193727,
          -0.07759825645106869,
          0.06798485957198863,
          0.3345974267938023,
          0.19238150745755628,
          0.0013122790129274147,
          0.2572334191897714,
          0.347785625382389,
          0.008206116674277937,
          0.17631857662316086,
          0.053882275945259774,
          0.5199350405279244,
          -0.31400494607735585,
          0.3371084089895335,
          0.3373580764757272,
          0.34557593338622267
        ],
        [
          0.19782184019061338,
          0.1936383113956441,
          0.3657576311851797,
          0.4985486317031913,
          0.38012008739767544,
          -0.7051472781915348,
          0.1220724043879153,
          0.5459456885408296,
          0.3591530632639809,
          0.49417384890067695,
          0.14875581492788814,
          0.3468421060655619,
          0.8516817253705712,
          0.3196657555371782,
          0.25157996631974705,
          0.06865086683758435,
          0.291231463465322,
          0.07477460159021072,
          0.28539492222556334,
          -0.0402525190713125,
          0.26721101330188846,
          0.41570107364965386,
          0.10591625478002743,
          0.4048317994810737,
          0.14845885078514592,
          0.11698049599197517,
          0.07016208978704458,
          0.2748675925739688,
          -0.8141407457953337,
          0.43280629813426746,
          0.4839362865514352,
          0.2848988021162484
        ],
        [
          0.31546834130607815,
          0.37652938397921853,
          0.5370259278438958,
          0.1796366140277301,
          0.3977020722238174,
          -0.037348620335226866,
          0.4910508403804744,
          0.30493149030541017,
          0.47989539276563065,
          0.19635907667788793,
          0.24616604415631416,
          0.5878078066770609,
          0.03940686264433989,
          0.12013210085073019,
          0.2628424267543135,
          0.26370666005287546,
          0.24248688439070462,
          0.24573827175593438,
          0.18893285955553318,
          -0.22310667775360302,
          0.5389401020114025,
          0.4120150599390791,
          0.4960288003254873,
          0.219173358456551,
          0.13112310680855876,
          0.5846682147342358,
          0.5777621266626922,
          0.5854052865019357,
          -0.2825195045437552,
          0.4588803140446462,
          0.24845108026541965,
          0.48217336488024215
        ],
        [
          0.360287292805993,
          0.34474496739799254,
          0.25358572617396724,
          0.027443664410132733,
          -0.05167645925061796,
          0.39800533625090495,
          0.2509988279879692,
          0.26525792443193646,
          0.03232415157861522,
          0.17238644492011118,
          0.42706137853434206,
          0.31650266597719257,
          0.17769404800053357,
          0.13830218241697803,
          0.2938776761977573,
          0.11205874198542681,
          0.25428076428339796,
          0.01903770428525981,
          0.20676024842560203,
          0.37162347436200954,
          0.46375986234901245,
          -0.07236949364257281,
          0.3373565038732206,
          0.1446672380105918,
          -0.10629414390155296,
          0.007667778845451851,
          0.15053218042557814,
          0.23631593064804488,
          -0.12014625073647847,
          0.1968159767644209,
          0.4114796488265376,
          0.04759790897146282
        ],
        [
          0.4134297357623241,
          0.2433723458341677,
          0.3775347410395665,
          0.17487597837408697,
          -0.03793484818426326,
          -0.32231794205734876,
          0.07797789843493406,
          0.14338312007097587,
          0.2979196681386374,
          0.4708653609993365,
          0.4336956043572039,
          0.3744293710201909,
          -0.19692326241695216,
          0.11014918996614166,
